-0.752359 -0.752359 -0.752359 -0.752359 -0.752359 -0.761744 -0.764379 -0.776496 -0.780128 -0.858197 -0.878183 -0.896091 -0.917906 -0.918169 -0.922263 -0.953796 -0.9538 -0.953805 -0.954049 -0.961801 -0.963921 -0.965841 -0.965895 -0.965896 -0.965895 -0.976272 -0.976353 -0.91016 -0.908636 -0.908631 -0.895101 -0.800602 -0.784813 -0.76397 -0.761365 -0.760149 -0.759116 -0.645008 -0.627718 -0.442789 -0.43027 -0.395132 -0.339677 -0.305693 -0.287504 -0.202625 -0.175428 -0.0767827 -0.0682651 0.0288015 0.0402185 0.0551382 0.0593762 0.0597915 0.0598634 0.0741262 0.131195 0.160848 0.161182 0.161205 0.161261 0.22464 0.242549 0.245606 0.245606 0.245606 0.246004 0.309438 0.309467 0.243336 0.243338 0.242208 0.161727 -0.0324622 -0.0315521 -0.0293023 0.0192067 0.020698 0.0221448 0.459787 0.46784 0.475609 0.483087 0.267565 -0.111989 -0.110403 -0.253046 -0.248611 -0.52582 -0.542263 -0.542263 -0.559267 -0.580626 -0.582177 -0.713416 -0.713418 -0.768833 -0.809851 -0.815361 -0.815684 -0.81575 -0.870407 -0.937067 -0.962204 -0.962543 -0.962571 -0.978172 -0.983714 -0.983681 -0.975045 -0.975045 -0.975045 -0.97405 -0.950734 -0.950586 -0.950579 -0.950116 -0.936714 -0.930957 -0.918564 -0.91729 -0.917984 -0.918675 -0.917272 -0.927974 -0.931274 -0.93212 -0.932717 -0.941803 -0.941647 -0.941116 -0.940106 -0.938509 -0.936226 -0.913376 -0.754067 -0.563425 -0.435702 -0.412079 -0.403813 -0.395501 -0.387379 -0.326841 -0.19169 -0.164943 -0.15939 -0.109265 -0.0882582 -0.0823173 -0.0820768 -0.081859 -0.0816617 0.0661973 0.157351 0.38429 0.404373 0.407399 0.407399 0.412041 0.41208 0.412087 0.412087 0.447873 0.449575 0.449575 0.4713 0.478416 0.478416 0.483876 0.506141 0.546839 0.546984 0.553632 0.551839 0.551914 0.549766 0.354944 -0.112888 -0.100674 -0.0978154 -0.168249 -0.167335 -0.166455 -0.154741 -0.153582 -0.152471 -0.15141 0.159291 -0.624669 -0.676844 -0.691219 -0.690962 -0.690707 -0.706807 -0.721949 -0.721949 -0.721949 -0.721949 -0.754587 -0.761165 -0.767904 -0.767904 -0.772014 -0.78014 -0.815006 -0.815605 -0.828641 -0.828645 -0.835638 -0.843939 -0.853126 -0.865939 -0.867084 -0.875899 -0.875915 -0.876013 -0.878224 -0.878376 -0.878903 -0.876429 -0.878429 -0.883846 -0.893107 -0.908929 -0.911593 -0.913999 -0.915996 -0.917388 -0.917919 -0.910542 -0.884389 -0.840757 -0.800983 -0.786509 -0.783473 -0.779667 -0.77514 -0.770012 -0.764454 -0.710208 -0.56765 -0.359527 -0.200676 -0.197114 -0.193819 -0.190799 -0.188049 -0.0723544 -0.0553894 0.0928163 0.12434 0.243552 0.248524 0.248856 0.249159 0.252013 0.503023 0.65899 0.680719 0.680899 0.680899 0.695472 0.70298 0.727878 0.7289 0.7289 0.806672 0.809179 0.830142 0.834767 0.834767 0.840672 0.84387 0.846362 0.849698 0.849698 0.824631 0.824606 0.801041 0.743978 0.757918 0.688969 0.689849 0.690694 0.691506 0.692283 0.680899 -0.0637344 -0.404371 -0.411489 -0.457218 -0.457156 -0.458071 -0.449666 -0.449666 -0.449666 -0.449666 -0.460498 -0.701085 -0.701085 -0.743022 -0.743022 -0.821504 -0.840101 -0.840101 -0.856377 -0.857929 -0.857941 -0.868723 -0.868725 -0.872739 -0.872431 -0.871119 -0.86624 -0.867382 -0.852153 -0.836151 -0.841517 -0.847066 -0.852775 -0.858607 -0.870063 -0.878459 -0.898613 -0.90242 -0.907833 -0.909831 -0.911223 -0.908654 -0.9082 -0.890833 -0.888772 -0.885512 -0.869916 -0.857272 -0.818891 -0.737248 -0.715888 -0.603307 -0.568881 -0.405986 -0.357664 -0.311538 -0.16924 -0.141233 -0.115564 0.0385711 0.0534181 0.0668613 0.0790262 0.0900391 0.118351 0.149037 0.190427 0.205962 0.208317 0.219304 0.257365 0.25997 0.290413 0.301717 0.321732 0.340644 0.341072 0.342766 0.343299 0.343798 0.446496 0.456805 0.458759 0.461251 0.464766 0.467996 0.452759 0.45276 0.45276 0.45276 0.408569 0.408715 0.414549 0.426339 0.427253 0.428132 0.47527 0.476926 0.478512 0.480029 0.483133 -0.366033 -0.541411 -0.580421 -0.580295 -0.58017 -0.612218 -0.613231 -0.623748 -0.623748 -0.623748 -0.634488 -0.6391 -0.639172 -0.639172 -0.642581 -0.648005 -0.648289 -0.772289 -0.774612 -0.777043 -0.779585 -0.782246 -0.785031 -0.797774 -0.807531 -0.816976 -0.821734 -0.826697 -0.831865 -0.837231 -0.84278 -0.84849 -0.854321 -0.870063 -0.932029 -0.936047 -0.939853 -0.946987 -0.955906 -0.96676 -0.955225 -0.955212 -0.955168 -0.947358 -0.928529 -0.928261 -0.927903 -0.922465 -0.918624 -0.870161 -0.666615 -0.617435 -0.567975 -0.367405 -0.301511 -0.239732 -0.182574 -0.130189 -0.0824786 -0.0391931 0 0.08486 0.100593 0.114852 0.127796 0.139571 0.210153 0.21496 0.237797 0.240628 0.243233 0.266929 0.271466 0.275671 0.435047 0.51034 0.510388 0.510391 0.51065 0.521429 0.538991 0.538991 0.538991 0.538991 0.511896 0.486729 0.486729 0.486729 0.48673 0.485523 0.454163 0.530893 0.532826 0.534692 0.553346 0.558377 0.563204 0.578121 0.581216 0.587552 0.593911 0.572618 0.585617 0.59859 0.611507 -0.378827 -0.381424 -0.634203 -0.636959 -0.636876 -0.657841 -0.657847 -0.657853 -0.657859 -0.657866 -0.698894 -0.703605 -0.705544 -0.733257 -0.734091 -0.77881 -0.781471 -0.784256 -0.78717 
-0.366591 -0.366591 -0.366591 -0.366591 -0.366591 -0.450576 -0.457315 -0.545699 -0.544281 -0.394735 -0.350403 -0.316597 -0.271717 -0.271581 -0.263743 -0.218652 -0.218649 -0.218646 -0.218105 -0.220039 -0.224204 -0.218251 -0.218243 -0.218241 -0.218257 -0.192924 -0.192665 0.145582 0.151209 0.151277 0.200645 0.464874 0.495326 0.514502 0.517637 0.51872 0.519751 0.547662 0.561086 0.679012 0.681658 0.659122 0.690838 0.706764 0.714819 0.708968 0.716716 0.720569 0.718735 0.658202 0.660215 0.744597 0.767243 0.767245 0.767258 0.781082 0.810222 0.78435 0.78434 0.784343 0.784321 0.703676 0.686294 0.684396 0.684396 0.684396 0.642754 0.620724 0.62069 0.46002 0.46002 0.453384 0.365962 0.309784 0.309944 0.312095 0.321366 0.322764 0.324105 0.617518 0.624817 0.631772 0.638383 0.386708 0.0218691 0.0232134 -0.460026 -0.458218 -0.308729 -0.282192 -0.282192 